digraph Tree {
node [shape=box, style="filled", color="black"] ;
rankdir=LR ;
0 [label="node #0\nX[1] <= 0.5\ngini = 0.441\nsamples = 100.0%\nvalue = [0.328, 0.672]", fillcolor="#9acdf2"] ;
1 [label="node #1\nX[2] <= 17.5\ngini = 0.491\nsamples = 51.9%\nvalue = [0.568, 0.432]", fillcolor="#f9e1cf"] ;
0 -> 1 [labeldistance=2.5, labelangle=-45, headlabel="True"] ;
2 [label="node #2\ngini = 0.0\nsamples = 4.4%\nvalue = [0.0, 1.0]", fillcolor="#399de5"] ;
1 -> 2 ;
3 [label="node #3\nX[2] <= 43.0\ngini = 0.471\nsamples = 47.5%\nvalue = [0.621, 0.379]", fillcolor="#f5ceb2"] ;
1 -> 3 ;
4 [label="node #4\nX[5] <= 7.85\ngini = 0.499\nsamples = 26.2%\nvalue = [0.521, 0.479]", fillcolor="#fdf5ef"] ;
3 -> 4 ;
5 [label="node #5\ngini = 0.0\nsamples = 3.3%\nvalue = [1.0, 0.0]", fillcolor="#e58139"] ;
4 -> 5 ;
6 [label="node #6\nX[2] <= 24.5\ngini = 0.495\nsamples = 23.0%\nvalue = [0.452, 0.548]", fillcolor="#ddeefa"] ;
4 -> 6 ;
7 [label="node #7\ngini = 0.245\nsamples = 3.8%\nvalue = [0.857, 0.143]", fillcolor="#e9965a"] ;
6 -> 7 ;
8 [label="node #8\ngini = 0.467\nsamples = 19.1%\nvalue = [0.371, 0.629]", fillcolor="#aed7f4"] ;
6 -> 8 ;
9 [label="node #9\nX[2] <= 47.5\ngini = 0.381\nsamples = 21.3%\nvalue = [0.744, 0.256]", fillcolor="#eeac7d"] ;
3 -> 9 ;
10 [label="node #10\ngini = 0.0\nsamples = 6.0%\nvalue = [1.0, 0.0]", fillcolor="#e58139"] ;
9 -> 10 ;
11 [label="node #11\nX[2] <= 49.5\ngini = 0.459\nsamples = 15.3%\nvalue = [0.643, 0.357]", fillcolor="#f3c7a7"] ;
9 -> 11 ;
12 [label="node #12\ngini = 0.278\nsamples = 3.3%\nvalue = [0.167, 0.833]", fillcolor="#61b1ea"] ;
11 -> 12 ;
13 [label="node #13\ngini = 0.351\nsamples = 12.0%\nvalue = [0.773, 0.227]", fillcolor="#eda673"] ;
11 -> 13 ;
14 [label="node #14\nX[5] <= 11.488\ngini = 0.127\nsamples = 48.1%\nvalue = [0.068, 0.932]", fillcolor="#47a4e7"] ;
0 -> 14 [labeldistance=2.5, labelangle=45, headlabel="False"] ;
15 [label="node #15\ngini = 0.5\nsamples = 3.3%\nvalue = [0.5, 0.5]", fillcolor="#ffffff"] ;
14 -> 15 ;
16 [label="node #16\nX[4] <= 1.5\ngini = 0.07\nsamples = 44.8%\nvalue = [0.037, 0.963]", fillcolor="#41a1e6"] ;
14 -> 16 ;
17 [label="node #17\nX[5] <= 29.356\ngini = 0.029\nsamples = 37.2%\nvalue = [0.015, 0.985]", fillcolor="#3c9ee5"] ;
16 -> 17 ;
18 [label="node #18\nX[0] <= 1.5\ngini = 0.165\nsamples = 6.0%\nvalue = [0.091, 0.909]", fillcolor="#4da7e8"] ;
17 -> 18 ;
19 [label="node #19\ngini = 0.32\nsamples = 2.7%\nvalue = [0.2, 0.8]", fillcolor="#6ab6ec"] ;
18 -> 19 ;
20 [label="node #20\ngini = 0.0\nsamples = 3.3%\nvalue = [0.0, 1.0]", fillcolor="#399de5"] ;
18 -> 20 ;
21 [label="node #21\ngini = 0.0\nsamples = 31.1%\nvalue = [0.0, 1.0]", fillcolor="#399de5"] ;
17 -> 21 ;
22 [label="node #22\nX[5] <= 135.775\ngini = 0.245\nsamples = 7.7%\nvalue = [0.143, 0.857]", fillcolor="#5aade9"] ;
16 -> 22 ;
23 [label="node #23\ngini = 0.0\nsamples = 3.8%\nvalue = [0.0, 1.0]", fillcolor="#399de5"] ;
22 -> 23 ;
24 [label="node #24\ngini = 0.408\nsamples = 3.8%\nvalue = [0.286, 0.714]", fillcolor="#88c4ef"] ;
22 -> 24 ;
}